<?xml version="1.0"?>
<opencv_storage>
<cascade>
  <stageType>BOOST</stageType>
  <featureType>HAAR</featureType>
  <height>32</height>
  <width>32</width>
  <stageParams>
    <boostType>GAB</boostType>
    <minHitRate>9.9500000476837158e-01</minHitRate>
    <maxFalseAlarm>5.0000000000000000e-01</maxFalseAlarm>
    <weightTrimRate>9.4999998807907104e-01</weightTrimRate>
    <maxDepth>1</maxDepth>
    <maxWeakCount>100</maxWeakCount></stageParams>
  <featureParams>
    <maxCatCount>0</maxCatCount>
    <featSize>1</featSize>
    <mode>BASIC</mode></featureParams>
  <stageNum>6</stageNum>
  <stages>
    <!-- stage 0 -->
    <_>
      <maxWeakCount>2</maxWeakCount>
      <stageThreshold>-3.1193944811820984e-01</stageThreshold>
      <weakClassifiers>
        <_>
          <internalNodes>
            0 -1 4 5.5942296981811523e-02</internalNodes>
          <leafValues>
            -9.6453201770782471e-01 8.8235294818878174e-01</leafValues></_>
        <_>
          <internalNodes>
            0 -1 3 -4.6791851520538330e-02</internalNodes>
          <leafValues>
            6.5259253978729248e-01 -1.</leafValues></_></weakClassifiers></_>
    <!-- stage 1 -->
    <_>
      <maxWeakCount>2</maxWeakCount>
      <stageThreshold>-6.1943644285202026e-01</stageThreshold>
      <weakClassifiers>
        <_>
          <internalNodes>
            0 -1 1 -1.0794705897569656e-01</internalNodes>
          <leafValues>
            5.9493672847747803e-01 -9.9392098188400269e-01</leafValues></_>
        <_>
          <internalNodes>
            0 -1 10 1.5528377890586853e-01</internalNodes>
          <leafValues>
            -1. 3.7448450922966003e-01</leafValues></_></weakClassifiers></_>
    <!-- stage 2 -->
    <_>
      <maxWeakCount>2</maxWeakCount>
      <stageThreshold>-5.3167968988418579e-01</stageThreshold>
      <weakClassifiers>
        <_>
          <internalNodes>
            0 -1 6 -6.0447761788964272e-03</internalNodes>
          <leafValues>
            1. -9.3610841035842896e-01</leafValues></_>
        <_>
          <internalNodes>
            0 -1 11 -9.1037509264424443e-04</internalNodes>
          <leafValues>
            4.0442875027656555e-01 -1.</leafValues></_></weakClassifiers></_>
    <!-- stage 3 -->
    <_>
      <maxWeakCount>3</maxWeakCount>
      <stageThreshold>-1.1742781400680542e+00</stageThreshold>
      <weakClassifiers>
        <_>
          <internalNodes>
            0 -1 8 4.4505465775728226e-03</internalNodes>
          <leafValues>
            -9.3610841035842896e-01 1.</leafValues></_>
        <_>
          <internalNodes>
            0 -1 12 -4.3626077240332961e-04</internalNodes>
          <leafValues>
            8.9324581623077393e-01 -9.6131294965744019e-01</leafValues></_>
        <_>
          <internalNodes>
            0 -1 7 4.0724696009419858e-04</internalNodes>
          <leafValues>
            -9.5223999023437500e-01 7.2314333915710449e-01</leafValues></_></weakClassifiers></_>
    <!-- stage 4 -->
    <_>
      <maxWeakCount>3</maxWeakCount>
      <stageThreshold>-1.2787084579467773e+00</stageThreshold>
      <weakClassifiers>
        <_>
          <internalNodes>
            0 -1 2 -6.4549418166279793e-03</internalNodes>
          <leafValues>
            5.8490568399429321e-01 -9.5261597633361816e-01</leafValues></_>
        <_>
          <internalNodes>
            0 -1 0 -2.9807558655738831e-01</internalNodes>
          <leafValues>
            8.4903478622436523e-01 -9.0620088577270508e-01</leafValues></_>
        <_>
          <internalNodes>
            0 -1 9 -7.3470138013362885e-03</internalNodes>
          <leafValues>
            5.8010834455490112e-01 -1.</leafValues></_></weakClassifiers></_>
    <!-- stage 5 -->
    <_>
      <maxWeakCount>2</maxWeakCount>
      <stageThreshold>-1.7208138108253479e-01</stageThreshold>
      <weakClassifiers>
        <_>
          <internalNodes>
            0 -1 5 -3.8965612649917603e-02</internalNodes>
          <leafValues>
            8.0000001192092896e-01 -9.9397587776184082e-01</leafValues></_>
        <_>
          <internalNodes>
            0 -1 13 -7.8143719583749771e-03</internalNodes>
          <leafValues>
            8.6639815568923950e-01 -9.7208136320114136e-01</leafValues></_></weakClassifiers></_></stages>
  <features>
    <_>
      <rects>
        <_>
          0 7 20 25 -1.</_>
        <_>
          10 7 10 25 2.</_></rects>
      <tilted>0</tilted></_>
    <_>
      <rects>
        <_>
          1 9 12 14 -1.</_>
        <_>
          7 9 6 14 2.</_></rects>
      <tilted>0</tilted></_>
    <_>
      <rects>
        <_>
          2 0 20 2 -1.</_>
        <_>
          2 0 10 1 2.</_>
        <_>
          12 1 10 1 2.</_></rects>
      <tilted>0</tilted></_>
    <_>
      <rects>
        <_>
          2 0 21 6 -1.</_>
        <_>
          2 3 21 3 2.</_></rects>
      <tilted>0</tilted></_>
    <_>
      <rects>
        <_>
          5 11 7 15 -1.</_>
        <_>
          5 16 7 5 3.</_></rects>
      <tilted>0</tilted></_>
    <_>
      <rects>
        <_>
          6 1 21 4 -1.</_>
        <_>
          13 1 7 4 3.</_></rects>
      <tilted>0</tilted></_>
    <_>
      <rects>
        <_>
          13 18 3 3 -1.</_>
        <_>
          14 18 1 3 3.</_></rects>
      <tilted>0</tilted></_>
    <_>
      <rects>
        <_>
          15 3 3 1 -1.</_>
        <_>
          16 3 1 1 3.</_></rects>
      <tilted>0</tilted></_>
    <_>
      <rects>
        <_>
          17 13 2 10 -1.</_>
        <_>
          18 13 1 10 2.</_></rects>
      <tilted>0</tilted></_>
    <_>
      <rects>
        <_>
          18 3 14 4 -1.</_>
        <_>
          18 5 14 2 2.</_></rects>
      <tilted>0</tilted></_>
    <_>
      <rects>
        <_>
          18 11 14 20 -1.</_>
        <_>
          25 11 7 20 2.</_></rects>
      <tilted>0</tilted></_>
    <_>
      <rects>
        <_>
          19 19 3 2 -1.</_>
        <_>
          20 19 1 2 3.</_></rects>
      <tilted>0</tilted></_>
    <_>
      <rects>
        <_>
          20 22 1 2 -1.</_>
        <_>
          20 23 1 1 2.</_></rects>
      <tilted>0</tilted></_>
    <_>
      <rects>
        <_>
          22 21 5 6 -1.</_>
        <_>
          22 23 5 2 3.</_></rects>
      <tilted>0</tilted></_></features></cascade>
</opencv_storage>
